<?xml version="1.0"?>
<opencv_storage>
<stage0>
  <maxWeakCount>5</maxWeakCount>
  <stageThreshold>-2.3284015059471130e-01</stageThreshold>
  <weakClassifiers>
    <_>
      <internalNodes>
        0 -1 84176 1.3551786541938782e-02</internalNodes>
      <leafValues>
        -6.8864470720291138e-01 8.2819384336471558e-01</leafValues></_>
    <_>
      <internalNodes>
        0 -1 61276 3.8977330550551414e-03</internalNodes>
      <leafValues>
        -5.4311215877532959e-01 9.2477995157241821e-01</leafValues></_>
    <_>
      <internalNodes>
        0 -1 9444 1.7594043165445328e-02</internalNodes>
      <leafValues>
        -9.5901125669479370e-01 6.1123502254486084e-01</leafValues></_>
    <_>
      <internalNodes>
        0 -1 76292 -5.9147039428353310e-03</internalNodes>
      <leafValues>
        9.8522520065307617e-01 -5.2584779262542725e-01</leafValues></_>
    <_>
      <internalNodes>
        0 -1 76353 -1.8780082464218140e-02</internalNodes>
      <leafValues>
        9.9319946765899658e-01 -5.4413574934005737e-01</leafValues></_></weakClassifiers></stage0>
</opencv_storage>
