<?xml version="1.0"?>
<opencv_storage>
<cascade>
  <stageType>BOOST</stageType>
  <featureType>HAAR</featureType>
  <height>20</height>
  <width>20</width>
  <stageParams>
    <boostType>GAB</boostType>
    <minHitRate>9.9900001287460327e-01</minHitRate>
    <maxFalseAlarm>5.0000000745058060e-02</maxFalseAlarm>
    <weightTrimRate>9.4999999999999996e-01</weightTrimRate>
    <maxDepth>1</maxDepth>
    <maxWeakCount>100</maxWeakCount></stageParams>
  <featureParams>
    <maxCatCount>0</maxCatCount>
    <featSize>1</featSize>
    <mode>ALL</mode></featureParams>
  <stageNum>3</stageNum>
  <stages>
    <!-- stage 0 -->
    <_>
      <maxWeakCount>5</maxWeakCount>
      <stageThreshold>-2.3284015059471130e-01</stageThreshold>
      <weakClassifiers>
        <_>
          <internalNodes>
            0 -1 10 1.3551786541938782e-02</internalNodes>
          <leafValues>
            -6.8864470720291138e-01 8.2819384336471558e-01</leafValues></_>
        <_>
          <internalNodes>
            0 -1 5 3.8977330550551414e-03</internalNodes>
          <leafValues>
            -5.4311215877532959e-01 9.2477995157241821e-01</leafValues></_>
        <_>
          <internalNodes>
            0 -1 0 1.7594043165445328e-02</internalNodes>
          <leafValues>
            -9.5901125669479370e-01 6.1123502254486084e-01</leafValues></_>
        <_>
          <internalNodes>
            0 -1 8 -5.9147039428353310e-03</internalNodes>
          <leafValues>
            9.8522520065307617e-01 -5.2584779262542725e-01</leafValues></_>
        <_>
          <internalNodes>
            0 -1 9 -1.8780082464218140e-02</internalNodes>
          <leafValues>
            9.9319946765899658e-01 -5.4413574934005737e-01</leafValues></_></weakClassifiers></_>
    <!-- stage 1 -->
    <_>
      <maxWeakCount>6</maxWeakCount>
      <stageThreshold>-1.6912306845188141e-01</stageThreshold>
      <weakClassifiers>
        <_>
          <internalNodes>
            0 -1 11 2.3263297043740749e-03</internalNodes>
          <leafValues>
            -6.5217393636703491e-01 8.0357140302658081e-01</leafValues></_>
        <_>
          <internalNodes>
            0 -1 4 -3.6294474266469479e-03</internalNodes>
          <leafValues>
            9.5690625905990601e-01 -5.1743286848068237e-01</leafValues></_>
        <_>
          <internalNodes>
            0 -1 1 -1.9000925123691559e-02</internalNodes>
          <leafValues>
            5.8755934238433838e-01 -9.2915338277816772e-01</leafValues></_>
        <_>
          <internalNodes>
            0 -1 15 -5.8801281265914440e-03</internalNodes>
          <leafValues>
            9.5441365242004395e-01 -4.8977833986282349e-01</leafValues></_>
        <_>
          <internalNodes>
            0 -1 7 -3.3984690904617310e-02</internalNodes>
          <leafValues>
            -1. 4.7022795677185059e-01</leafValues></_>
        <_>
          <internalNodes>
            0 -1 3 2.2013088688254356e-02</internalNodes>
          <leafValues>
            4.9344214797019958e-01 -9.9723082780838013e-01</leafValues></_></weakClassifiers></_>
    <!-- stage 2 -->
    <_>
      <maxWeakCount>7</maxWeakCount>
      <stageThreshold>-7.4272912740707397e-01</stageThreshold>
      <weakClassifiers>
        <_>
          <internalNodes>
            0 -1 2 -6.3035809434950352e-03</internalNodes>
          <leafValues>
            9.3277311325073242e-01 -5.1788491010665894e-01</leafValues></_>
        <_>
          <internalNodes>
            0 -1 6 4.1933027096092701e-03</internalNodes>
          <leafValues>
            -4.9652242660522461e-01 8.4003472328186035e-01</leafValues></_>
        <_>
          <internalNodes>
            0 -1 14 1.1552673764526844e-02</internalNodes>
          <leafValues>
            -8.6036181449890137e-01 5.7151913642883301e-01</leafValues></_>
        <_>
          <internalNodes>
            0 -1 16 -3.5429686249699444e-05</internalNodes>
          <leafValues>
            -1. 4.1167926788330078e-01</leafValues></_>
        <_>
          <internalNodes>
            0 -1 16 1.9554585378500633e-05</internalNodes>
          <leafValues>
            3.6109080910682678e-01 -1.</leafValues></_>
        <_>
          <internalNodes>
            0 -1 13 -5.9615820646286011e-03</internalNodes>
          <leafValues>
            9.7171360254287720e-01 -5.3318220376968384e-01</leafValues></_>
        <_>
          <internalNodes>
            0 -1 12 -1.3015604577958584e-02</internalNodes>
          <leafValues>
            9.7593390941619873e-01 -5.3942877054214478e-01</leafValues></_></weakClassifiers></_></stages>
  <features>
    <_>
      <rects>
        <_>
          0 15 20 5 -1.</_>
        <_>
          5 15 10 5 2.</_></rects>
      <tilted>0</tilted></_>
    <_>
      <rects>
        <_>
          1 14 19 6 -1.</_>
        <_>
          1 17 19 3 2.</_></rects>
      <tilted>0</tilted></_>
    <_>
      <rects>
        <_>
          5 10 1 3 -1.</_>
        <_>
          5 11 1 1 3.</_></rects>
      <tilted>0</tilted></_>
    <_>
      <rects>
        <_>
          6 4 12 2 -1.</_>
        <_>
          6 4 6 2 2.</_></rects>
      <tilted>1</tilted></_>
    <_>
      <rects>
        <_>
          6 6 2 2 -1.</_>
        <_>
          6 6 1 1 2.</_>
        <_>
          7 7 1 1 2.</_></rects>
      <tilted>0</tilted></_>
    <_>
      <rects>
        <_>
          6 8 3 1 -1.</_>
        <_>
          7 8 1 1 3.</_></rects>
      <tilted>0</tilted></_>
    <_>
      <rects>
        <_>
          7 6 3 1 -1.</_>
        <_>
          8 6 1 1 3.</_></rects>
      <tilted>0</tilted></_>
    <_>
      <rects>
        <_>
          8 1 10 7 -1.</_>
        <_>
          8 1 5 7 2.</_></rects>
      <tilted>1</tilted></_>
    <_>
      <rects>
        <_>
          8 6 3 1 -1.</_>
        <_>
          9 6 1 1 3.</_></rects>
      <tilted>0</tilted></_>
    <_>
      <rects>
        <_>
          8 6 2 12 -1.</_>
        <_>
          8 6 1 6 2.</_>
        <_>
          9 12 1 6 2.</_></rects>
      <tilted>0</tilted></_>
    <_>
      <rects>
        <_>
          9 7 3 3 -1.</_>
        <_>
          10 8 1 1 9.</_></rects>
      <tilted>0</tilted></_>
    <_>
      <rects>
        <_>
          9 10 1 2 -1.</_>
        <_>
          9 11 1 1 2.</_></rects>
      <tilted>0</tilted></_>
    <_>
      <rects>
        <_>
          9 12 3 2 -1.</_>
        <_>
          10 12 1 2 3.</_></rects>
      <tilted>0</tilted></_>
    <_>
      <rects>
        <_>
          13 10 1 2 -1.</_>
        <_>
          13 11 1 1 2.</_></rects>
      <tilted>0</tilted></_>
    <_>
      <rects>
        <_>
          14 0 6 6 -1.</_>
        <_>
          14 3 6 3 2.</_></rects>
      <tilted>0</tilted></_>
    <_>
      <rects>
        <_>
          14 10 1 3 -1.</_>
        <_>
          14 11 1 1 3.</_></rects>
      <tilted>0</tilted></_>
    <_>
      <rects>
        <_>
          19 18 1 2 -1.</_>
        <_>
          19 19 1 1 2.</_></rects>
      <tilted>0</tilted></_></features></cascade>
</opencv_storage>
